3.123821453555516436e-01 -5.924114234795927469e-01 1.074272823115421938e-01 -1.795140261586237740e+00 6.170996187328204208e+00
-8.276453430290673374e-01 -1.924611388771649390e+00 -2.395180088782541405e-01 1.232223713353943761e+00 -5.303097559436020791e-01
5.169252750568661403e-01 1.722017697824382854e+00 3.529486879761176699e-01 6.672244860539623401e-01 3.513188845282892991e-01
-2.876514970390131598e-01 -6.495112730048679950e-02 3.270509885802809213e-01 -6.183834386292961227e-01 2.575124164848116681e+00
6.365463611048861603e-01 2.101569142564591708e+00 1.449524024230636865e+00 -7.897848398434748063e-02 1.060500303642903264e+00
7.407273048195225362e-01 1.756100698455835829e+00 1.811095597320867112e+00 -3.654672736966562141e-01 5.684902812011697337e-01
-2.301488034758173651e+00 2.085613662542694868e+00 -6.896538382539346701e-01 -7.725112738570066861e-01 3.055520141567182879e-01
-2.196460609064103120e-01 2.886650487982765911e-01 3.306010949386730124e-01 4.445358934655652128e-01 4.617374133779957313e-01
