1.339297679444074740e-01 -6.643744057945422110e-02 2.907167378437492955e-01 -1.321346554929398787e+00 6.061199950406558123e+00
-2.188092256609705188e+00 -4.739399810160332960e-02 1.310270273192531421e-01 9.168123567782568983e-01 -1.546295888133929763e-01
6.976186212052468694e-01 1.872038628619498546e+00 7.237437738921296271e-01 1.117197067319999126e+00 -2.051568044738387164e-01
-1.235360576570267099e+00 -1.119183129583342984e+00 1.599022994533032538e+00 -7.060042221783680017e-01 2.938174144242212904e+00
-2.277434714697712526e-02 1.373911792340237303e+00 1.523876899736308577e+00 7.613110100376219158e-01 -5.113789740026601638e-02
-3.121253979172983195e-01 2.241163881486539111e+00 7.973789676989420094e-01 -2.311932385684334346e+00 7.047612008290285446e-02
-1.719265299065800612e+00 3.566486870654019814e+00 -8.574342041886250376e-01 -5.255501069145617210e-01 5.069488169839811986e-01
-1.416833716040601043e+00 4.682256611329640439e-01 9.894383736523711947e-01 7.651410572055971082e-01 -4.500886707335502446e-01
